<?xml version="1.0"?>
<opencv_storage>
<DigitOCR type_id="opencv-ml-ann-mlp">
  <layer_sizes type_id="opencv-matrix">
    <rows>1</rows>
    <cols>3</cols>
    <dt>i</dt>
    <data>
      64 16 10</data></layer_sizes>
  <activation_function>SIGMOID_SYM</activation_function>
  <f_param1>5.9999999999999998e-01</f_param1>
  <f_param2>1.</f_param2>
  <min_val>-9.4999999999999996e-01</min_val>
  <max_val>9.4999999999999996e-01</max_val>
  <min_val1>-9.7999999999999998e-01</min_val1>
  <max_val1>9.7999999999999998e-01</max_val1>
  <training_params>
    <train_method>BACKPROP</train_method>
    <dw_scale>1.0000000000000001e-01</dw_scale>
    <moment_scale>1.0000000000000001e-01</moment_scale>
    <term_criteria><epsilon>9.9999999747524271e-07</epsilon>
      <iterations>1000</iterations></term_criteria></training_params>
  <input_scale>
    9.0308417987637704e+00 -9.5832880739786719e-01
    1.7492769448492989e+01 -8.9050237170976887e-01
    6.8235252042428601e+02 -8.1914634094735539e-02
    4.8045289662653513e+03 -4.4946657497549475e-02
    1.5933441265527736e+02 -2.4335843323409390e-01
    8.6515421718888746e+01 -4.2764051790314239e-01
    1.3556098887734348e+02 -1.6586595354483116e-01
    1.9299916568649780e+03 -6.2170170166739348e-02
    1.3778372079461572e+03 -7.7043608946489858e-02
    1.7145162851147086e+02 -2.7818360360695388e-01
    1.0568902192439604e+02 -2.3147112993248556e-01
    3.9685070882477584e+02 -5.6561762235991221e-02
    6.5188466896093545e+04 -4.4946657497549468e-02
    1.6425565453135412e+04 -1.1083614747110981e-01
    8.1670690992236558e+01 -1.7779739522160468e-01
    6.9801690670614164e+02 -4.6323495451947791e-02
    1.2347090640699813e+01 -8.7693480458625495e-01
    6.1667427933923548e+01 -8.7426485103371698e-01
    2.3784675653543252e+02 -8.4892478529810245e-02
    3.7067958798917840e+02 -6.0977590219361902e-02
    3.0184041537169673e+01 -9.5636148414333078e-01
    1.2498781555750137e+01 -1.4809545502774495e+00
    7.7693123256727077e+01 -4.9666799965036679e-01
    4.7525319366540845e+02 -1.0178012743383626e-01
    1.3661085751954436e+03 -1.4822813737959348e-01
    8.3229984449756699e+01 -1.8514319980493027e-01
    2.5128742366842610e+02 -4.0479881063958184e-01
    1.2135376666209773e+02 -1.0749427304976883e-01
    1.6297163879570918e+05 -4.4946657497549475e-02
    1.0521958047873528e+02 -5.9350883173567341e-02
    2.1049136355480033e+02 -6.3752347488284955e-02
    4.4151354762082241e+02 -1.2714654837314976e-01
    2.2471607596009872e+02 -1.7235913340336820e-01
    1.7575294170886792e+02 -2.3976993640992961e-01
    7.7741052926785599e+01 -1.0183123646221164e-01
    5.0595022377340449e+01 -6.5386017513001049e-02
    2.0089271768535056e+01 -6.4230782894522631e-01
    2.2128636956526595e+01 -1.1628475261114319e+00
    7.1949556627208878e+01 -2.3064044411116588e-01
    9.1446368728901291e+01 -7.4336884154055663e-02
    1.6905645697904055e+02 -2.4072143623366335e-01
    2.5873642510161503e+01 -9.1369313025738719e-01
    2.1863364973534090e+01 -1.3125981638158617e+00
    9.5701647207053810e+01 -8.2408472971185798e-01
    9.7339667501541335e+04 -5.3481670030794945e-02
    7.5732147360801605e+02 -9.7954834437189886e-02
    5.1147582372058423e+01 -8.1022371599359391e-02
    1.0585286190586085e+02 -4.9092220838308215e-01 1. 0.
    1.4092009365766992e+02 -8.3915654519136837e-02
    2.6007754765307670e+01 -7.3911978096111469e-02
    4.8990823610969992e+03 -4.5066047499701251e-02
    7.9015475556409035e+02 -3.4126423890396557e-01
    1.3527405807937626e+02 -3.1304029863700278e-01
    8.5558470805397803e+01 -1.8987006999053327e-01
    2.8869981536790357e+02 -8.1115686067325388e-02
    9.3956806889583333e+02 -2.8597362066808163e-01
    3.9924292387657538e+01 -4.7660094676459241e-01
    3.2318664674734784e+01 -1.6567532069298649e+00
    2.2618651584381888e+02 -2.4791184061090968e-01
    3.0930817288971588e+02 -4.9130486863272524e-02
    1.0315895871604437e+02 -1.7787136799482819e-01
    1.9073647874178601e+01 -8.8595550821035129e-01
    1.0843355627700962e+01 -2.7513433013917492e+00</input_scale>
  <output_scale>
    5.2631578947368418e-01 4.9999999999999994e-01 5.2631578947368418e-01
    4.9999999999999994e-01 5.2631578947368418e-01 4.9999999999999994e-01
    5.2631578947368418e-01 4.9999999999999994e-01 5.2631578947368418e-01
    4.9999999999999994e-01 5.2631578947368418e-01 4.9999999999999994e-01
    5.2631578947368418e-01 4.9999999999999994e-01 5.2631578947368418e-01
    4.9999999999999994e-01 5.2631578947368418e-01 4.9999999999999994e-01
    5.2631578947368418e-01 4.9999999999999994e-01</output_scale>
  <inv_output_scale>
    1.8999999999999999e+00 -9.4999999999999996e-01
    1.8999999999999999e+00 -9.4999999999999996e-01
    1.8999999999999999e+00 -9.4999999999999996e-01
    1.8999999999999999e+00 -9.4999999999999996e-01
    1.8999999999999999e+00 -9.4999999999999996e-01
    1.8999999999999999e+00 -9.4999999999999996e-01
    1.8999999999999999e+00 -9.4999999999999996e-01
    1.8999999999999999e+00 -9.4999999999999996e-01
    1.8999999999999999e+00 -9.4999999999999996e-01
    1.8999999999999999e+00 -9.4999999999999996e-01</inv_output_scale>
  <weights>
    <_>
      7.5961590098920340e+00 -2.6759460071976710e-01
      -4.4258472752727901e-02 2.7899309199176042e-01
      1.6703093368691513e-01 -1.4824538211471148e+00
      9.7835056094770709e-02 -1.4283461842917777e+00
      1.3717834500074230e-01 1.3915217659312786e+00
      7.7624546544675987e-01 7.8627643013094817e-01
      9.1585653383849841e-01 1.4055623282692797e+00
      -2.5744448907086676e-01 7.6906298303435816e-01
      -2.8187963799473357e+00 -5.5920257247339900e-01
      -1.5129935286021836e+00 7.8574025636947042e-02
      2.6992634641216484e-02 1.7323367669260534e+00
      -1.5497524292024167e-01 7.1928751086781861e-01
      -5.0454378745860035e-02 8.7278263446982007e-01
      2.2206707855667868e-01 1.0121572582294291e+00
      2.3571897948798175e+00 -9.3673545434199113e-01
      -1.4049549908930987e+00 -4.5499429604315793e+00
      1.0243289314347926e+01 2.0301087437831372e-01
      2.6696543091648600e-01 4.4637708816267330e-01
      -2.5684323350255384e-01 9.0854774752055514e-02
      6.3814236314571526e-01 1.0266386399150063e-01
      -2.4348371882838674e-01 1.0791394516606236e-01
      2.8667732159002168e-01 -6.0488554052141603e-02
      2.1479235450636291e-01 1.1114938314929748e+00
      7.4903812363979128e-01 5.8958572785093671e-02
      2.8923470214608202e+00 -3.9892307177671754e-01
      -1.1715008135376039e-01 -8.3265865721286345e-02
      7.7839208842722579e-02 -1.4645739723210469e-01
      5.6565109367476753e-02 -2.1315317221987862e-01
      -1.1839497511094334e-01 1.0024511008620184e-01
      4.1412400994855048e-02 1.1924407532510117e-01
      -3.2791636346651665e-02 3.9065646888124694e-01
      1.3075961976157288e-01 1.6459535547527868e-01
      -2.3468305231814965e+00 -5.4190478109592002e-02
      6.0431910329621488e-02 -2.9219137087239350e-02
      2.9070298980952219e-01 4.3664694936343273e-01
      -1.2504569040735000e-01 -5.7333505912762583e-01
      3.1842610177121794e-01 4.6541117412107280e-01
      -1.0477270940653167e+00 -2.4280937957148022e-01
      1.2095317408867180e-01 -3.1083851922279704e-01
      3.9451716791459662e-01 2.3205647222683399e+00
      3.9171978741790867e+00 8.2356903108674173e-01
      1.2370214897610172e+00 -3.9805095530563123e-01
      -1.5167395175104084e+00 -1.8596099472254914e+00
      8.2935364946831636e-01 -6.5732739063446821e-01
      -3.1575388803183897e-02 -9.7660340690551073e-01
      8.1679421946130892e-01 -2.6039334957590982e-01
      -1.4469896211288484e+00 -1.4336633171149959e-01
      6.5388060898562950e-01 1.5519518910680846e-01
      -2.0560280456521047e+00 3.7050419458320155e-01
      2.4981570008633638e-01 -5.8257062048425101e-01
      8.3686066790449098e-01 6.2410382707852630e-01
      2.3196737935060749e-01 1.0504077607344993e+00
      3.2468515358485539e-01 -2.2013727222256310e-01
      6.1739764833505184e-02 -1.3836931154634435e-01
      4.6985889600776132e-01 3.8585871085560974e-01
      3.4678079064465639e-01 3.1124583367409447e-01
      1.9875604204325685e+00 -3.0512295100667952e-01
      -2.9212602441979785e-01 -6.2083741625960420e-02
      -1.1456360981016614e-01 -2.5513083560886474e-01
      -2.2517359812622408e-02 -1.8230304753962190e-01
      -2.2149599013318397e-01 4.6869910344677329e-02
      1.1996707815096248e-02 1.4267326128508481e-01
      3.6169704046754222e-02 6.7090861613262265e-01
      1.5287891486368479e-01 2.1809204188392781e-01
      3.4132173118135579e-02 7.4655601363744245e-02
      -3.9246984627422293e-01 6.1359322695188040e-02
      1.7009111856355597e-01 7.9170974610023070e-01
      2.4044447150686293e-01 9.5657603494941748e-02
      3.3327972593013278e-01 8.4154918199963025e-01
      1.0318434321516617e-01 1.5613889515381060e-01
      4.2858289961201762e-01 2.6991901258215162e-01
      -1.1385555433882222e-01 -1.3371522447944020e-01
      1.9287000831197706e-01 -9.9616910181235165e-03
      -6.4077654020989153e-02 9.1675720321950330e-02
      5.8310678661140702e-01 4.3140070167198702e-01
      -1.1788982438040387e+00 2.6457051373381124e-01
      -4.6256454577734429e-01 -6.9690439286521499e-01
      -1.2734794718456707e-01 -9.2963373620598477e-01
      -1.0879784503021892e+00 2.8682053349931819e-01
      1.2698086819667440e-01 4.5116612727420424e-01
      -5.8050121747617665e+00 -3.8955939847631715e-01
      1.2218758949064046e-01 1.1893420477105061e-01
      2.4418734482930546e-01 1.7350657559797938e-01
      -5.5415208205280531e-01 2.1538010382013573e-01
      1.4878574352059011e-02 -3.8849562976514007e-01
      -4.7433572202757840e-01 -8.4345057904079213e-01
      -1.6103380026555139e-01 9.0130619075222862e-01
      -7.0739848557739876e-02 1.9220358094072693e-01
      5.8829980463215581e-01 8.3156539124293716e-02
      -1.6423672877680273e-01 6.3563591605761069e-02
      -3.7127448498217785e-01 1.5568820255466534e-01
      -3.1759885126818893e-01 -1.9468426766651131e-01
      -1.0704859545759163e-01 -3.1195488998136839e-01
      -3.9686950037785357e-01 5.6410337189902668e-02
      -2.1454784864084278e-01 6.9888400856232269e-02
      1.5262914253723978e-02 5.5363524210946459e-02
      4.0184778590931353e-01 -2.1553651925241385e-01
      2.1993776871485013e-01 5.7701260605458819e-02
      8.5324753958139085e-02 4.7623070294719566e-01
      1.7977947898295341e-01 9.9631167856081039e-03
      -3.5709730395363466e-02 -1.6356996510884614e-01
      -1.0628946560260498e-01 2.1275321933519689e-01
      -1.8728913886517812e-01 -2.5586582490451815e-01
      2.3530823302771933e-01 -8.2519337573891183e-02
      -2.3771865850351953e-01 -5.8577868914276188e-01
      1.3335639609879274e-01 -8.2615633371528524e-02
      -4.8970956989043984e-01 9.5496556456528672e-02
      -1.7757887526357444e-01 -3.3736531820209831e-01
      5.9119227225907546e-02 -6.3015272190160093e-02
      3.2381717644099145e-01 -4.6684639300878594e-01
      -2.8475593662289561e-01 7.9126477741337437e-02
      1.2022159139859166e-01 5.3880208259442319e-01
      -1.0223572325156159e+01 -3.6276728907265149e-01
      -1.2916027746754599e-01 -1.0019185650590502e-01
      -6.6050015965285175e-02 7.8619828788848628e-02
      -5.2088967614979909e-01 -7.5975134141258061e-01
      -5.6716176621584735e-02 2.9696472920440330e-02
      -3.8273342943740532e-02 1.6132814199868808e-01
      7.4343574267458046e-01 6.1900787352728071e-01
      2.4063786671616133e-01 -2.5391546336500215e-01
      -6.1133314992618470e-01 -1.1902892193484771e-01
      -1.8131034821097719e-01 3.3624981217756644e-03
      -1.7962878174505839e-01 2.1533817504727518e-01
      -9.5609645360949236e-02 2.0703386499955605e-02
      1.2882784166331820e-01 1.3649757528540510e-01
      -3.0447983430488712e-02 1.2054320645125528e-01
      1.3756197407502110e-01 -2.6531518164039595e-02
      -3.4475389110482479e-01 4.1651275165137634e-02
      -2.3727595661540324e+00 6.1904365530037531e-01
      9.0839021355682348e-01 -5.6452962051203148e-01
      -5.5280817335955257e-01 -2.2513577542906060e-01
      6.0073954541977626e-01 2.6513562071592683e-01
      3.3923813146295401e-01 6.5467103274417654e-02
      -1.0243863407751852e+00 2.5844595300683759e-01
      -8.7975078958550390e-01 5.6399347512977767e-02
      4.6267328700854718e-02 6.2278618201245384e-01
      3.5740913559394976e+01 -2.6576581756444289e+00
      -1.6779716765732844e+00 1.3391659756900454e+00
      1.3717251418979735e+00 2.2833219840153487e+00
      -1.1678129495733975e+00 1.8065906605123919e-01
      -8.7268666922917223e-02 3.5448494165879252e-01
      1.6968931299501318e+00 -5.6776659371269178e-01
      3.1012837708950514e-01 -7.8672740804074781e-01
      -9.1438282856707742e-01 -1.3099354543171313e+00
      4.5457779043588147e+00 -1.6105416971801985e+00
      4.8234237557672566e-01 -1.0541795702406549e+00
      -2.4450742521179955e-01 -8.0603564076481515e-01
      -7.9950506733870275e-01 -1.8073119148457975e-01
      -1.4385587877370620e-01 1.9787295696463725e-01
      -3.7133338370834312e-01 2.6954800031707454e-01
      -1.3350708821930659e+00 4.3290372040169667e-01
      2.4159163356191060e-01 -7.3792295738926772e-01
      2.5267260632949076e+00 -1.8919556375992219e-01
      1.4716170302411079e-02 7.1841813923980269e-01
      -1.1138949994721399e-01 1.0704085068251019e-01
      5.4004063776318700e-01 -1.2824218720401326e-01
      4.0775977561951816e-02 1.1366369441101414e-01
      1.9157979500303658e-02 1.4790814145107747e-01
      8.6588270803814460e-01 3.3122919774273746e-01
      3.8134676707502008e-01 1.1368860206540374e+00
      -6.0276091329829935e+00 1.3964736715264372e+00
      2.1910314388318679e+00 1.3062918184224208e+00
      4.0933108513515415e-01 -6.6240570578323132e-01
      1.4704420412312671e+00 4.3119398313591062e-01
      5.2793746021506271e-01 5.7068088408222209e-02
      6.1502006671769505e-01 3.4232990340310993e-01
      -1.1549336785959426e-01 6.3709052171177463e-02
      4.9076017099617975e-01 1.1524726842275466e+00
      -6.7957305819567120e+00 -6.4560294799471640e-01
      -1.6157964651049657e+00 -2.0315470795421728e-01
      1.7538072494011743e+00 -7.5927349818718870e-01
      -5.2214100870444247e-01 1.4740920582807321e-01
      -1.9713634419399612e-01 -3.1487668478884157e-01
      -4.3060011078473531e-01 -7.0262691753955109e-01
      9.7932921955363003e-02 -1.1617587616172778e+00
      -8.5941790490137160e-01 -1.1139493945037180e+00
      -1.3414784136848114e+01 3.3081416884231757e-01
      -2.4888205915064412e-01 1.9025368705813914e-01
      2.8214594762823610e+00 2.0367295952121522e+00
      2.0218081227628434e-01 -4.9265255521359397e-01
      -2.9186079085751016e-01 -2.8081340513242253e-01
      -3.5362536670727968e-01 8.0202096848667559e-01
      -5.5220012096848103e-01 -1.3398772075862151e+00
      -6.2278689356283090e-01 -1.5009971271787133e+00
      -6.4717854418892928e+00 1.5905149032020405e+00
      3.1078443615251494e-01 1.8503003563404463e-01
      -5.7262261877592591e-01 -2.5824845493675315e+00
      6.4483752143261663e-01 3.3366837784372111e-01
      -4.8662335786297228e-01 1.9347932213468552e-01
      8.6689281224631584e-02 7.9978280222944009e-01
      -2.8610163319396303e-01 3.0505019407145656e-01
      -9.3559838951885843e-01 -5.3962438888687148e-01
      -1.5653352480899377e+01 -1.2041334535089510e+00
      5.5955975438955641e-01 3.0428024961726127e-02
      7.6360253234867059e-01 -4.8421474645624074e-01
      -5.0808379446752427e-01 -3.9550463027741467e-01
      -1.8959637192609802e-01 -1.6318821248405455e+00
      -3.5777031484896138e-01 -1.8140116847475301e+00
      -1.7675767564434601e+00 -1.5925263358831632e+00
      5.8512969222665423e-01 -1.5610715210891471e-01
      4.3234338627916706e+00 7.1907948982590131e-01
      -2.2365599740206479e-01 -4.8902042966068016e-01
      6.9004382192897984e-01 -4.8149845824104573e-02
      3.4508944169267897e-01 5.5349267819734482e-01
      -3.8828876323943845e-01 -1.5859825991018828e+00
      7.2849708000571733e-01 3.9531620319956723e-01
      4.8168555397076901e-01 1.8312682062112382e+00
      -3.7740880899572332e-01 9.5812805240202858e-02
      -1.5428128079707044e+00 1.0742403414290820e-01
      4.5226465948321282e-01 -1.2233400120867356e-01
      -2.0667326324316085e-01 -7.1056798853205472e-01
      3.1704518117637963e-02 -2.1376750487908491e-01
      -4.3465239150424095e-01 2.1240422144527199e-01
      -4.3940566717375135e-01 -6.1202170768486053e-01
      -1.1962015208914865e+00 -1.0579528617106586e+00
      5.3157440089029277e-02 1.0694093521864169e-01
      -3.5978637111247189e+00 4.1774096260667537e-01
      -6.5352883076536905e-01 -2.4462783959909221e-01
      -4.9958590357360430e-02 -4.0150126202412817e-01
      -3.3818077740689578e-01 4.5905094577489103e-01
      -3.0624223687156571e-01 5.4834367590000532e-01
      2.0924189123062062e-01 3.0895051668178841e-01
      4.4388741114877239e-01 1.3576116048664248e+00
      3.9663361641666861e-01 6.5362512770750136e-01
      4.0884539411228987e-01 -1.9646890956369478e-01
      2.6596337621867877e-01 3.1292597154888295e-02
      9.4452580379786238e-02 4.8369718151862645e-01
      1.3677284283461452e-01 -4.7815684458678347e-04
      -3.7784977112010266e-02 -2.0786958541594025e-01
      -1.1719811144281128e-01 2.5677863910324578e-01
      -1.8846054912447233e-01 -2.8757790995634025e-01
      1.9645236773836935e-01 -7.4654154237496564e-02
      3.2437983168502726e+00 -5.6743903243888734e-02
      4.6618573212499917e-02 3.3875829507876723e-02
      -1.0213310349835272e-01 5.7125637611309588e-01
      1.8846751110396194e-02 -5.6018433264862447e-03
      2.7715283832482306e-02 -1.8070739561337371e-01
      -1.5591235244395574e-01 9.8976309748823266e-02
      2.6750275432750531e-01 -1.9536113978867922e-01
      3.4706672442231135e-02 1.9779178707704964e-01
      6.7080648457265326e+00 2.2791716042572085e-01
      -1.3620327926748221e-01 3.2406538436636773e-01
      -2.8972631498428153e-01 2.9329456172042906e-01
      -8.9777631383052767e-02 3.9632745422347843e-01
      -1.9247746359295273e-01 -2.7851516653740438e-01
      -2.1675505881070958e-01 -3.6186769680416625e-01
      -5.1758231166787383e-01 1.9083209830100245e-01
      2.7214633899053498e-01 3.9501396516997000e-01
      -1.2221476084752609e+00 -7.9604199921488636e-02
      -2.5360558276871176e-01 -1.7286720357058424e-01
      5.8573692158534030e-01 -1.6676757834482248e-02
      2.2979777777774421e-01 -9.7653028446514814e-02
      -1.6710631519827859e-01 -2.5986569745711113e-01
      -7.9978521367355861e-03 -5.1936699430799527e-01
      3.2011484876914098e-01 2.3903340163499789e-01
      4.0589584548783242e-01 -8.6829455746297302e-02
      2.7794165335082903e+00 -3.0911289486383192e-01
      -4.2387269811560553e-02 -3.8276890257041607e-01
      -1.8828156590160408e-01 -7.8984875750534123e-01
      -1.0826434380615317e+00 1.2952693994423485e+00
      -2.9830367331370128e-01 6.1825320525452876e-01
      -3.3341345632819935e-01 9.8898614130550111e-01
      5.0885578172341062e-01 7.2806649682613722e-01
      1.8074587546508442e-01 4.5920429344658664e-01
      -3.8283940928959981e-01 -1.2265927612466325e+00
      3.9931007730962684e-02 -1.1470592854017125e+00
      1.8761313992623303e+00 -2.4793430500990117e+00
      -5.5926926683983291e-01 3.4288913854794334e+00
      -7.1735789135950867e-01 2.1291069405023184e+00
      1.9462632848887393e-01 2.2212454502130861e+00
      -3.9744143455647269e+00 -1.0454340902203461e+00
      -8.0067480099107635e-01 -1.1037081280414109e+00
      -1.8177337596426979e+00 -5.1560334763897941e-01
      -9.6183673012240489e-01 9.1235300703774191e-01
      -4.3418474644666499e-01 6.1724840991869012e-01
      3.0199435886441134e-01 -8.9554213501910984e-01
      1.7137478745957849e-01 3.5149006931603893e-01
      -8.7063282197969577e-02 5.5209083247446589e-01
      2.9784993902056183e+00 2.2710063393533039e-01
      7.1815390599365855e-02 6.7201125820893526e-01
      1.2478498595765206e+00 -1.6092021377120158e-01
      -2.5139219235766824e-01 5.9518912636470145e-01
      -1.9479203790428934e-01 -5.0208675895328785e-02
      3.7178450659891393e-01 -2.7573278334244500e-01
      1.2912966205580223e-01 7.2819071793504317e-02
      1.4199526931632175e-01 3.9141700596113138e-01
      7.5371730521853064e-01 3.2849458971362927e-01
      3.3476493112505196e-01 8.9575610595778110e-01
      2.4727822489330213e+00 1.6184749594200365e+00
      1.7225102115426110e+00 -2.5118631460972529e-01
      1.8384165880545849e+00 1.2132128313225865e+00
      2.3412506508845770e+00 1.7847313288250064e+00
      3.1225968042133359e-02 -2.3094390817306061e+00
      -7.3366878763730714e-01 5.9096562820202458e-01
      -1.4394393116740190e+00 -2.0521090077648281e+00
      1.6150163719889801e-01 -2.6103067791444812e-01
      -2.7997947205951199e+00 5.6363953964963609e-01
      2.7279369567175218e+00 -5.4714998947248183e-01
      -3.7209374153847855e-02 -5.3694877020068765e-01
      -2.8181615879956495e-01 3.2323639798035417e+00
      1.6958536440134755e-01 -1.6601362966597841e-01
      5.6384072455546996e-01 -1.0977423235004655e+00
      -9.7645063358409701e-01 3.3688400064583646e+00
      2.6949552967952410e+00 -9.3904182698464136e-02
      1.0938155170458492e+01 -9.8614094959096021e-01
      1.0825662532063758e+00 -4.2370263411252485e-01
      -6.3856635530731828e-02 -1.7199605578189475e-01
      -9.3886565821047388e-02 2.2058929276837863e-01
      3.1800105375703575e-01 -1.2444421835104296e+00
      1.8856382997313805e+00 -2.5784889005771015e+00
      -2.4418694662774350e+00 4.0543857062632827e-01
      -4.3605398539749496e-01 2.6857994332094981e-01
      7.8793789409093895e-01 -1.0842568005921522e+00
      -3.2292421157604487e-02 -6.5929406816314817e-01
      -8.1688724756648318e-02 -4.4358408137236949e-01
      -4.9217611251828991e-01 -6.3424952660452324e-02
      9.7703645694355967e-02 1.3403067318314676e-01
      -5.3047866057136288e-02 5.7425012852400603e-01
      -7.2906316648441105e-01 2.6396419288968803e-01
      1.8742121505605194e-01 -1.9579896049509143e-01
      1.1969428036455213e+01 2.8545286021956375e+00
      -1.1606908259191349e+00 -1.7196098688878997e-01
      -9.4699226449752039e-01 -1.0110288615066965e+00
      1.0529114498301875e+00 -5.3884898467214629e-02
      -4.4790697860895667e-01 9.3375181925758077e-01
      -2.0182072529431933e-01 1.6484541134830706e+00
      -1.1381111022485804e+00 -7.9296837323032582e-02
      -2.8108292972289273e-01 -1.8618337897678976e+00
      -9.2504853975543373e+00 -1.5886207084501984e+00
      2.2853929652845562e-01 6.0024419159111331e-01
      -8.0063857868344457e-01 1.2539916771044188e-01
      -1.6824407075119869e+00 -3.5472675192342162e+00
      -2.3820520681646959e-01 -4.3435298518634718e-01
      -1.5834427614228505e-01 -5.4183040550474781e-01
      -1.6969686423390777e+00 -2.1985833926413534e+00
      -9.6603558724790739e-01 7.9873075997627208e-01
      -5.8001242793594106e+00 -8.1780469168395353e-01
      2.1107767452568363e-01 1.2951548396544788e+00
      -5.1254146596796402e-01 -2.4407341319296094e-01
      -1.0938723869839082e+00 -5.8783071392323721e-02
      -4.4487464981480034e-02 -6.8083648297630983e-01
      7.4512741271875016e-02 -1.8819615441022535e+00
      -4.0652997712744471e-01 5.5470947077785560e-01
      1.5573634478507528e-01 8.5159769267416296e-01
      -7.9669370137915063e-01 -4.3353887653779444e-01
      2.1166872714300289e-01 -5.6487549792507506e-03
      9.5826895376050447e-01 2.3841835265065831e-01
      -1.2187950283862909e+00 5.9987450148275556e-01
      5.5498883224603952e-02 -2.2817412317931565e+00
      -4.9730406454736698e-01 -2.2594526235202141e+00
      -3.1336496144050202e-01 -1.0929307485185711e+00
      -8.9552185177268817e-02 -3.2159392175759477e-01
      1.4127247393916471e+00 -2.9330412215494314e-02
      -1.8615779561355036e-01 -1.1891610687675250e-01
      2.1830328903609658e-01 -5.2393496287370034e-01
      2.1734597500959585e-01 -4.5550111594581361e-02
      -1.3862135310060961e-01 1.3982431518280150e-01
      -2.0613056047779307e-01 1.3037467040320949e-01
      -1.9019882444188382e-01 3.6668187839366301e-01
      2.0629083785282401e-01 8.4932833316759149e-03
      2.6919793589907073e+00 -7.9139461174958209e-02
      1.5576426945425736e-01 3.7177383707573536e-02
      -5.6434191708988835e-02 2.3662135226066505e-01
      2.7820176689625686e-01 -2.6712331237851400e-01
      8.5413933196420544e-02 -4.5405983941166306e-01
      -3.4039211255897350e-01 -4.6079891535174410e-02
      -3.0100101018144981e-01 -5.6023338081502982e-01
      -2.5913969013750571e-01 -3.9730898181948543e-01
      1.0825153785495392e+00 2.1329667088878301e-02
      -2.4898751557855583e-01 7.5601594941393946e-01
      -4.5425205992920464e-02 -1.9747002534566006e-02
      3.7584002189368287e-01 -1.4799374696520184e-01
      -3.7459927061954446e-01 3.2141877801438727e-02
      3.1977893246704658e-01 7.3720564774316155e-01
      1.1538682896556229e-01 -7.9534914980112625e-01
      4.2982733949670110e-01 4.4004245798639458e-01
      -1.2225367011576193e+01 -3.0986595825954960e-01
      -2.7843288389343124e-01 2.8916718426920666e-02
      -9.3804667631108474e-01 2.2432383985861732e+00
      -5.6001769536292823e-01 -2.9934866208013194e-01
      -4.7178973238870509e-01 -7.9817331598698349e-01
      -5.7932094511286183e-02 -4.5904187922758033e-01
      -4.8841134259068653e-01 -9.6753704074405433e-01
      6.0573063158282085e-02 -3.1558335081377203e-01
      -6.2228025912729502e-03 2.6566829854396144e-02
      2.0151141126787127e-02 -3.2210308700053127e-03
      8.7960471859264647e-03 3.0448352423875079e-02
      -1.2593127886229346e-02 -3.0430151172863289e-02
      1.9897434950672459e-02 2.9235486885142638e-02
      -1.6781812612012264e-02 -2.6988701054304481e-02
      -2.4782086829498321e-03 1.3573436824957734e-02
      -8.6685139504533090e-03 -1.2508918859873649e-03
      -1.1160773337501698e+01 4.4497842294407003e-01
      -5.5185606229909545e-01 6.0323308531182929e-01
      2.9254239914057767e-01 1.7509508219345020e+00
      8.7012217501008782e-01 5.3960259083152229e-01
      -1.8099899152559726e-01 7.9868603427452223e-01
      -3.7613887078462500e-03 5.9961769316658853e-01
      1.7366506554664489e+00 -1.3190172508356546e-01
      4.7640983815212862e-01 7.7920190163163261e-01
      1.1922610064294835e-01 -4.4031628403193968e-02
      -2.4158200825492243e-01 3.6555472399083727e-01
      -5.2206897317666312e-01 -1.3403765121252095e-02
      4.4067498155197971e-01 -3.1507491018725908e-01
      5.5976442515690242e-02 -1.6615516794300036e-02
      -2.0969245482264753e-01 -5.3611830664734607e-02
      1.0859626766448307e+00 3.2833042413266778e-01
      5.4978723894062609e-01 4.5080365884960111e-01
      -1.3159585558281468e+00 -1.2323122358695816e-01
      4.2793840770062275e-01 4.8362583771089603e-02
      1.5837106900781033e-02 -4.9022732280604692e-01
      2.2928462440633593e-01 -1.6089301438150858e-01
      4.1677025476048797e-02 -2.8056238888401069e-01
      -2.1983459455410320e-01 -4.1882932067944140e-01
      -3.9256709124997308e-01 1.3488817309660267e-01
      2.7651259687448104e-01 4.3644243016928103e-01
      -1.3748696552985720e+00 -5.1992475216412692e-01
      4.4688068871239695e-01 1.1252870607446690e-01
      7.2774921252090885e-01 4.0515055369323061e-01
      -1.1846486870831939e-01 2.5109884231885479e-02
      4.5320579055655778e-02 -6.2173416532887460e-01
      -5.8804096705710707e-01 3.4138580964172238e-01
      5.6606182788389442e-03 -8.4822264771941502e-01
      2.5189891686181143e-01 1.0529012848298447e+00
      -2.0319225583917273e+00 4.2919783718978088e-01
      1.5666460965054874e-01 -1.0746427093103612e-01
      -1.2577303693870339e+00 -2.0851632415502630e+00
      1.7173638105725700e-01 4.8884716933763761e-01
      -6.6856233408783505e-01 -2.5243807542236025e+00
      5.8063042948181620e-01 -6.6691554980265444e-01
      -4.7131828129782596e+00 3.8774589170810991e-01
      1.0024643272714540e-01 -2.8782868375729342e+00
      -1.7385640186195348e+00 -1.6075158770101590e+00
      -2.5680803360102967e-02 -4.3687510388556156e-01
      -4.8626997954499468e-01 -5.4379747133322409e-01
      -1.2398292183328059e+00 -1.1768132223156362e+00
      1.9904568249881319e-01 1.1370032413713476e+00
      -1.5902971197328389e-01 4.2761110951110537e-01
      -3.0288608406782103e-01 2.1975219087793998e-01
      -5.9331637435780193e-01 -2.5092432802070219e-01
      -5.2586655203641994e+00 -1.7687853810475239e-02
      -3.4335830657987484e-03 -2.9899453060700555e-02
      1.5113177284449342e-01 1.2961430143096144e+00
      3.2372318138309653e-01 2.7226818637621875e-02
      -3.0425990387066865e-01 1.3809217452444159e-01
      -1.1215655856721396e+00 -4.2326314671209747e-01
      5.3078512471105399e-01 6.5518309719036175e-02
      2.1649744820924828e+00 1.0428879550035591e-01
      -1.3688369760605019e+00 -3.2306293808124137e-01
      -4.7089154043388054e-01 -3.6809430335907573e-01
      -1.9066893759225495e-01 5.8423010869802339e-01
      7.6777628688160993e-01 -1.9076447667620836e-01
      -4.0183150877145725e-02 6.0635465396625170e-02
      2.4638851613786525e-01 -9.8266231572558538e-02
      3.7973935559936173e-01 4.4055693110270605e-01
      -4.2586105796812024e-01 2.7429187458112841e-01
      6.9081969879610394e+00 3.7439725333863962e+00
      -1.5061800491650850e+00 -1.3994431893037100e+00
      -6.7409447927450750e-01 2.4433244235102214e-01
      3.8849720485704671e+00 -2.8132570354874420e-01
      1.1742414138317371e-01 -1.8006690022308669e+00
      5.4004575616797668e-01 1.3753105524086967e-01
      -6.3564136486972223e-01 5.9306841876275029e-01
      -6.5236698849356622e-01 -6.0951843827646124e-01
      -1.5087081298004881e+01 8.0221251728047716e-01
      -8.4759201212140289e-01 -1.7440678367780740e+00
      -1.3880519377016012e+00 2.2563292598608040e-01
      9.5765492558010734e-01 1.3700167822359774e-01
      -4.1606011772220014e-01 9.1961531299742316e-01
      7.0667465127502438e-01 4.5842272541452445e-01
      2.0157502284509263e+00 9.0948357866201046e-01
      -5.5056024941936767e-02 -3.3785042149909922e-01
      9.7478394495317673e+00 7.8073668991882905e-01
      -1.0142014435856150e+00 1.4405025291634208e-01
      -2.8351480036634363e-01 5.3285178041056114e-01
      1.5431236070402767e+00 1.8833722598104405e+00
      -8.5691376104501105e-01 1.6296560804910669e+00
      -9.1900865108144422e-02 -8.4280304099271564e-01
      -1.6365594683634059e+00 2.4536081309682856e+00
      1.1509756568200553e+00 1.4634866602458192e+00
      4.0563855950065486e+00 -5.4312784718552831e-02
      -4.9138744144580093e-01 -9.3125804580890578e-02
      8.2432353523756927e-02 3.5013189727496639e-02
      3.9455224370095754e-01 1.0398547561241718e-01
      -8.0002083550606867e-02 5.7336774890890863e-01
      1.8247220837796280e-01 2.6064046929357199e-01
      7.1053184549733173e-01 9.4499419600099865e-01
      1.7649578176794548e-01 1.9161576439060149e-01
      1.3470326823097491e+01 1.8928981619600098e+00
      -1.3817409954895625e+00 1.2035239904990999e-01
      -1.3425242368420836e+00 6.5083082940481607e-01
      -4.3233483920323607e-01 3.5379808154930287e-01
      -5.3788140609873492e-01 1.3048530666883955e+00
      -2.1602503813498721e+00 1.9695481161054543e-01
      -6.2093282961490404e-01 8.6125600148987358e-01
      8.8510652333375994e-01 -4.2126271680493421e-01
      -1.1447548748559790e+01 -1.7583046703482080e-02
      -9.1659275738552548e-01 -3.3480075017225475e-01
      -3.2857190692689651e+00 3.9127157001523538e-01
      -1.0986574498211403e+00 -5.9330381077712546e-01
      -6.2575139480127051e-01 1.4036723133350242e+00
      1.6878396479006418e-02 7.1219344236544291e-01
      1.9117913882403268e+00 1.7393616561475875e+00
      1.0379472223435122e+00 2.3777245251056220e-01
      1.3429837560816733e+01 -6.3750809526724073e-01
      2.6196063693870864e-01 9.5487338065072674e-02
      7.0291748640550000e-01 6.9165266300063144e-01
      -1.1172115987755444e+00 5.3503344550688128e-02
      5.0259837136698915e-01 -5.4767191203221965e-01
      -5.2309653266961187e-01 -4.5377733601812414e-01
      -9.0341236929816371e-01 -1.9509158170752272e+00
      -1.2072663200685635e-01 1.3636892082809395e+00
      7.4606966860237636e+00 1.8014073972864469e-01
      -5.1469107545349724e-01 2.6646957520080421e+00
      3.1163137025810812e+00 3.7280094404900712e+00
      8.8005865816695539e-01 4.3019551610735818e-01
      -3.7924588019714025e+00 -1.2407594365526359e-01
      3.7702655655688799e+00 3.1775350160593998e+00
      -2.3133119685979233e+00 -3.9568093066855208e+00
      1.7786791361820389e+00 -2.3849950569070582e+00</_>
    <_>
      9.1789777264396621e-01 1.5945862255939031e-01
      -4.4037980783752928e-01 -1.3491561374649046e+00
      3.0963011904176480e-01 1.8419651613105323e-01
      2.7706324511713962e+00 -3.8199825044384811e-01
      -2.9127660190931590e+00 9.2156563225641897e-01
      2.7000537621272271e+00 4.3727125996437821e-01
      7.1224856404317061e-01 -3.1433418140649110e+00
      -2.6053396056070128e+00 1.6915457819767539e+00
      -9.3037885634827044e-01 9.0929722522472745e-01
      -3.8314395917078383e+00 2.3265721450175665e+00
      -1.5802495930718194e+00 9.7638056948243623e-01
      3.5672853761988756e+00 3.8335820345816702e+00
      1.8985133308289779e+00 -2.2260537060483028e+00
      -3.6545892869257846e-01 -1.8028901167084439e+00
      -1.6375662855752522e+00 -1.6644599394520281e+00
      1.0066703425864612e+00 -1.5549146346619713e+00
      -1.0197373635279798e+00 4.2479527508369747e-01
      -4.3918055988439058e+00 4.3142959463896247e-01
      -1.4746311579066182e-01 -9.1835427278750192e-01
      -2.8698422879100920e+00 6.0229145564180575e-01
      -1.8246818936198337e+00 -2.7806674486358718e+00
      4.4215298102017044e+00 6.9799045754822209e-02
      2.9078855434508005e-01 1.3821442961633008e+00
      -1.1765277732921636e-01 -1.4896327096115101e+00
      1.3769248916847479e+00 1.5034223004943108e+00
      -2.3543011688723903e-01 -1.7530196971976340e+00
      3.1336545685004689e+00 -1.6918376797780426e+00
      1.9533614381812775e-01 -4.0658009255675021e+00
      -2.7363225616786196e-01 -2.8310241822597764e+00
      9.7489104028209639e-01 9.0745263006843657e-01
      -2.4158851768615013e+00 1.6367806433929066e+00
      2.5265965908401502e+00 -2.3203670319919865e+00
      -1.5681584072105057e+00 -4.7521474891696952e-01
      -7.5511246086389272e-01 1.6997509961000346e+00
      -3.1772339943664205e+00 2.7030636292857992e+00
      -4.3465857859247753e-01 -2.6289829931296711e+00
      1.3052659208963815e+00 -1.8373609617782047e+00
      -3.6046079842944459e-02 2.1883184503287079e+00
      -9.2786945416314950e-02 2.6145691667581317e+00
      -3.2912478721472707e+00 3.2752508340309547e+00
      7.5363881019678214e-01 3.3636112081384346e+00
      3.5617791008710773e+00 2.4532742748276264e+00
      1.2079420166111414e+00 2.0315235457238341e+00
      3.9931443030385787e+00 1.6752472434305095e+00
      2.8920177026623892e+00 1.3869228444291493e+00
      5.8796937295262686e-01 -2.1858972587494860e+00
      7.1683036538967154e-02 -8.1525148956623182e-03
      1.7003344144405066e+00 1.8313394216128258e+00
      -1.5430105736840425e+00 -3.5048851897458877e+00
      1.1203533463946906e+00 3.9953581136623715e+00
      -3.7486893553911229e+00 5.7918065959126031e-01
      -2.3032657241499193e+00 -1.4743442705007896e+00
      -1.9037981895535709e+00 -1.1773760708080079e+00
      2.2689565930416752e-01 -2.3302529219206694e+00
      -4.0885172500293141e+00 7.2843366181665786e-02
      -8.8950257760982088e-01 1.2583110137214429e-01
      -9.1425540838964525e-01 -2.2152793886228102e+00
      4.3696671626883274e-02 5.3497586310198253e-01
      -3.5128495797430506e+00 -2.0377318232862978e+00
      2.9818098576471099e+00 -3.2579228250426637e+00
      -3.1631735139339567e-01 1.1756050750116429e+00
      8.5038351481254182e-01 -3.3315316267420891e-01
      -1.2216246919604081e+00 -1.6924355744800550e+00
      -2.5409577463372606e+00 -4.3864076231153376e-01
      4.0829588592747426e+00 6.0588490857427582e+00
      -6.7859245325684925e-01 -3.7383261605036600e+00
      -2.0200195906217306e+00 -1.5692759439874635e+00
      4.7078017108697046e-01 -2.3254677836202045e+00
      8.8934580874697675e-02 3.1166443721110904e+00
      -1.7075186051656452e+00 4.6186817474629382e+00
      9.8834814373113700e-01 -3.2513227452137019e+00
      1.2678126201894566e+00 5.0916702005655901e-01
      -4.9010794301488657e-02 -2.2791330521260029e+00
      -3.5619269904186175e+00 -7.1597808732762808e-02
      -1.8825034634283500e+00 6.0889976263169721e-01
      -8.0224502555132160e-01 -2.9176075919260902e-01
      -2.3468982324560379e+00 3.0369741469537068e+00
      -1.6654686110349790e+00 8.2009973946239534e-01
      -2.5439450800321695e-01 -8.4125795613706711e-01
      -2.0337281779034759e+00 4.7699589963127789e+00
      -3.8034437299446164e+00 -3.9326569169909815e+00
      -4.0048976875700406e+00 -5.4530581266207525e+00
      -3.8098090457451246e+00 -5.2314170020731705e+00
      -4.8354639127605790e+00 -4.5570741553097003e+00
      -5.5106742410015457e+00 -2.3399953273564549e+00</_></weights></DigitOCR>
</opencv_storage>
